king -0.32307 -0.87616 0.21977 0.25268 0.22976 0.7388 -0.37954 -0.35307 -0.84369 -1.1113 -0.30266 0.33178 -0.25113 0.30448 -0.077491 -0.89815 0.092496 -1.1407 -0.58324 0.66869 -0.23122 -0.95855 0.28262 -0.078848 0.75315 0.26584 0.3422 -0.33949 0.95608 0.065641 0.45747 0.39835 0.57965 0.39267 -0.21851 0.58795 -0.55999 0.63368 -0.043983 -0.68731 -0.37841 0.38026 0.61641 -0.88269 -0.12346 -0.37928 -0.38318 0.23868 0.6685 -0.43321 -0.11065 0.081723 1.1569 0.78958 -0.21223 -2.3211 -0.67806 0.44561 0.65707 0.1045 0.46217 0.19912 0.25802 0.057194 0.53443 -0.43133 -0.34311 0.59789 -0.58417 0.068995 0.23944 -0.85181 0.30379 -0.34177 -0.25746 -0.031101 -0.16285 0.45169 -0.91627 0.64521 0.73281 -0.22752 0.30226 0.044801 -0.83741 0.55006 -0.52506 -1.7357 0.4751 -0.70487 0.056939 -0.7132 0.089623 0.41394 -1.3363 -0.61915 -0.33089 -0.52881 0.16483 -0.98878
queen -0.50045 -0.70826 0.55388 0.673 0.22486 0.60281 -0.26194 0.73872 -0.65383 -0.21606 -0.33806 0.24498 -0.51497 0.8568 -0.37199 -0.58824 0.30637 -0.30668 -0.2187 0.78369 -0.61944 -0.54925 0.43067 -0.027348 0.97574 0.46169 0.11486 -0.99842 1.0661 -0.20819 0.53158 0.40922 1.0406 0.24943 0.18709 0.41528 -0.95408 0.36822 -0.37948 -0.6802 -0.14578 -0.20113 0.17113 -0.55705 0.7191 0.070014 -0.23637 0.49534 1.1576 -0.05078 0.25731 -0.091052 1.2663 1.1047 -0.51584 -2.0033 -0.64821 0.16417 0.32935 0.048484 0.18997 0.66116 0.080882 0.3364 0.22758 0.1462 -0.51005 0.63777 0.47299 -0.3282 0.083899 -0.78547 0.099148 0.039176 0.27893 0.11747 0.57862 0.043639 -0.15965 -0.35304 -0.048965 -0.32461 1.4981 0.58138 -1.132 -0.60673 -0.37505 -1.1813 0.80117 -0.50014 -0.16574 -0.70584 0.43012 0.51051 -0.8033 -0.66572 -0.63717 -0.36032 0.13347 -0.56075
man 0.37293 0.38503 0.71086 -0.65911 -0.0010128 0.92715 0.27615 -0.056203 -0.24294 0.24632 -0.18449 0.31398 0.48983 0.09256 0.32958 0.15056 0.57317 -0.18529 -0.52277 0.46191 0.92038 0.031001 -0.16246 -0.40567 0.78621 0.57722 -0.53501 -0.68228 0.16987 0.3631 -0.071773 0.47233 0.027806 -0.14951 0.17543 -0.37573 -0.78517 0.58171 0.86859 0.031445 -0.45897 -0.040917 0.95897 -0.16975 0.13045 0.27434 -0.069485 0.022402 0.24977 -0.21536 -0.32406 -0.39867 0.68613 1.7923 -0.37848 -2.2477 -0.77025 0.46582 1.2411 0.57756 0.41151 0.84328 -0.54259 -0.16715 0.73927 -0.093477 0.90278 0.50889 -0.50031 0.26451 0.15443 -0.29432 0.10906 -0.26667 0.35438 0.049079 0.18018 -0.5859 -0.55542 -0.28987 0.74278 0.3453 -0.028757 -0.22646 -1.3113 -0.5719 -0.52306 -0.1267 -0.098678 -0.53463 0.28607 -0.37501 0.45742 0.045975 -0.24675 0.045656 -0.38302 -0.93711 0.039138 -0.53911
woman 0.59368 0.44825 0.5932 0.074134 0.11141 1.2793 0.16656 0.2407 0.39045 0.32766 -0.75034 0.35007 0.76057 0.38067 0.17517 0.031791 0.46849 -0.21653 -0.46282 0.39967 0.16623 -0.011477 0.044059 0.30325 0.6153 0.47047 -0.44036 -1.5963 0.18433 0.23193 0.20452 0.51617 0.65734 -0.3452 0.23446 -0.62004 -0.68741 0.28575 1.0605 0.46916 -0.85149 0.10154 0.21426 -0.20587 0.23636 0.21321 -0.21287 0.12107 0.18766 -0.23282 -0.25499 -0.39631 0.84379 1.6801 -0.40941 -1.9976 -0.69868 0.21732 1.2197 0.55126 0.44095 0.72588 -0.092053 -0.022406 0.72039 0.1076 0.84116 0.30312 -0.42544 0.056362 0.13109 -0.071181 -0.10579 0.56677 0.54547 0.84113 0.14861 -0.62628 -0.68391 -1.0831 -0.088385 0.32167 0.47794 0.091868 -1.2559 -1.2268 0.085401 0.36833 0.081566 -0.76611 0.87751 -0.22008 0.82401 -0.092207 -0.45941 0.46571 -0.56018 -0.54648 0.15162 -0.30754
apple -0.5985 -0.46321 0.13001 -0.019576 0.4603 -0.3018 0.8977 -0.65634 0.66858 -0.49164 0.037557 -0.050889 0.6451 -0.53882 -0.3765 -0.04312 0.51384 0.17783 0.28596 0.92063 -0.49349 -0.48583 0.61321 0.78211 0.19254 0.91228 -0.055596 -0.12512 -0.65688 0.068557 0.55629 1.611 -0.0073642 -0.48879 0.45493 0.96105 -0.063369 0.17432 0.9814 -1.3125 -0.15801 -0.54301 -0.13888 -0.26146 -0.3691 0.26844 -0.24375 -0.19484 0.62583 -0.7377 0.38351 -0.75004 -0.39053 0.091498 -0.36591 -1.4715 -0.45228 0.2256 1.1412 -0.38526 -0.06716 0.57288 -0.39191 0.31302 -0.29235 -0.96157 0.15154 -0.21659 0.25103 0.096967 0.2843 1.4296 -0.50565 -0.51374 -0.47218 0.32036 0.023149 0.22623 -0.09725 0.82126 0.92599 -1.0086 -0.38639 0.86408 -1.206 -0.28528 0.2265 -0.38773 0.40879 0.59303 0.30769 0.83804 -0.63655 -0.44639 -0.43406 -0.79364 -0.28675 -0.034398 1.3431 0.34904
orange -0.14969 0.16477 -0.35532 -0.71915 0.6213 0.7414 0.68959 0.40371 -0.24239 0.1774 -0.95079 -0.18887 -0.02344 0.49681 0.081903 -0.36944 1.2257 -0.119 0.95571 -0.19501 -0.27181 -0.21512 0.33257 0.058012 0.2024 0.79726 0.17186 -0.07327 -0.094389 -0.23099 0.74749 0.12781 0.56017 -0.48495 0.067763 0.096598 0.36286 0.41255 0.7284 -0.24565 0.15594 -1.6498 -0.1249 -1.4253 0.17686 0.33953 0.16609 0.49343 0.20749 -0.38584 0.080416 -0.28528 -0.031983 0.7019 -0.2476 -1.7416 0.057705 0.54416 1.321 0.10399 -0.30049 0.59179 -0.43636 0.0073024 0.23774 -0.58334 0.0091243 -0.57954 0.14525 0.26466 0.40722 0.4397 -0.5326 -0.3826 0.14389 0.43093 0.75326 0.15122 0.068386 0.23951 0.39557 -0.63551 -0.17037 0.59053 -0.35312 -0.71106 -0.01147 0.22757 0.93422 0.75689 0.24836 -0.83904 -1.294 0.16362 -1.082 -0.29307 -0.48125 0.33599 0.092629 -0.37595
france 0.4359 -0.04961 0.31388 0.6056 0.36372 -0.03974 0.42844 0.58571 -0.0048055 -0.24868 -0.069374 0.036042 -0.68352 0.55531 -0.36235 0.13997 0.020455 -0.82498 -0.68761 0.28685 0.37247 0.62814 0.45655 0.11955 1.087 -1.3191 0.1611 -0.37508 1.1136 -0.8442 -0.78734 -0.61974 -0.48193 -0.76358 0.55343 0.80071 0.53818 -0.13143 -1.2196 -0.10605 -0.60646 -0.45015 0.34853 -0.49596 0.31408 0.24088 0.28625 -0.11539 0.40018 -0.94102 0.30618 1.3605 -0.75011 1.3509 -1.1497 -2.6059 -0.078406 0.09977 0.93239 0.15718 1.0857 -0.52454 0.14787 -0.61679 0.49391 0.38589 -1.264 0.78695 0.13566 0.22713 0.49846 -0.25495 -0.88281 -0.17737 0.50366 -0.094379 0.65361 -0.14926 -0.79488 0.42061 0.92563 -0.5842 -0.21701 0.56262 -1.0399 -0.97772 -0.34684 0.58105 -0.38675 -0.42649 -0.35594 -0.45715 0.46549 0.64176 -0.89077 1.021 -0.76028 -0.59967 0.10388 -0.45569
germany 0.62089 0.71051 0.49581 0.2182 0.18127 -0.92589 -0.30954 -0.15834 -0.07074 -0.084606 0.6675 -0.31942 -0.66679 0.96027 0.14904 0.4003 0.6387 -0.74965 -0.98889 -0.1133 0.32911 0.97882 0.3331 1.3617 -0.14774 -1.4021 0.29626 0.13054 1.1928 0.076387 -0.7157 0.13113 -0.50277 -0.37225 0.61614 0.29827 0.88864 -0.34603 -0.86274 -0.42865 -0.50206 -0.65342 0.50815 0.7233 -0.12165 -0.4388 1.5427 0.01085 0.32925 -0.50504 0.42031 0.2242 -0.40981 1.1989 -0.88256 -2.2866 -0.20654 0.01268 0.91281 0.21769 1.2248 0.0864 -0.14858 0.003622 0.62902 0.29895 -0.79931 1.2537 0.16826 -0.063013 -0.058029 -0.73259 -0.53952 0.16578 0.47429 0.48791 0.099387 -0.68582 -0.32279 0.32005 1.0429 0.053037 -0.76444 0.60452 -1.0789 -0.702 -0.71156 0.46185 -0.09204 -0.11692 0.034927 -0.41649 0.82345 0.82755 -0.22434 0.25671 0.12455 0.24843 0.71266 -0.27483
paris 0.92605 -0.22818 -0.25524 0.73997 0.50072 0.26424 0.40056 0.56145 0.17908 0.050464 0.024095 -0.064805 -0.25491 0.29661 -0.47602 0.24244 -0.067045 -0.46029 -0.38406 -0.3654 0.15749 0.21118 0.018207 -0.42058 0.82612 -1.2281 -0.1881 -1.1329 0.9173 -0.47742 -0.78411 -0.86034 -0.39816 -0.15607 -0.50674 1.0742 0.93976 -0.091229 -0.79965 0.13812 -0.14918 -0.62778 -0.25522 -0.52545 0.23676 0.18139 -0.59288 -0.081326 0.51924 -0.19556 0.071476 0.57523 0.43635 0.55699 -1.4944 -2.6694 -0.49878 0.59342 0.69801 0.13714 -0.24939 0.34214 -0.90352 -0.51692 -0.2329 -0.040954 -0.93519 0.16596 -0.039047 0.42333 -0.72123 -0.72504 -1.0439 -0.46385 0.082186 -0.57145 1.2457 -0.30138 -0.99085 -0.25259 0.52881 0.14195 -0.036968 0.037708 -1.0728 -0.43544 -0.37919 0.2541 -0.4297 -0.40406 0.15981 -0.53575 0.98038 0.64597 -0.77094 1.1849 -0.23599 -0.40988 0.35553 0.096974
berlin 0.69796 0.026999 0.068505 0.065858 0.40963 -0.38146 -0.56633 -0.045967 -0.019801 0.40051 0.45928 -0.44242 -0.25291 0.56519 -0.42689 0.66001 0.74877 -0.61531 -0.93373 -0.70314 0.25014 0.47758 -0.27972 0.10961 -0.18595 -1.1541 0.014234 -0.15504 1.2269 -0.083134 -0.96295 0.26263 -0.10777 0.2001 -0.60195 0.60761 1.1275 -0.032634 -0.69365 0.071476 0.14524 -0.56237 -0.1676 0.71003 0.39329 -0.60368 0.63867 -0.19897 0.35546 0.50909 0.32231 -0.58378 0.061194 0.58127 -1.3054 -2.2658 -0.0047571 0.27903 0.12816 0.09481 0.15086 1.0745 -0.83654 0.10862 0.15205 0.17329 -0.52959 0.72439 -0.40303 0.11472 -0.32336 -0.83121 -0.12508 0.053349 -0.17481 -0.031144 0.76887 -0.42122 -0.34157 0.11762 0.33802 0.19437 -0.32066 0.40762 -1.009 0.047386 -0.43626 0.051032 0.069644 0.099814 0.28354 -0.65775 0.75207 1.018 -0.18832 0.32236 0.97124 0.50001 0.44992 -0.012456
