king 0.0033901 -0.34614 0.28144 0.48382 0.59469 0.012965 0.53982 0.48233 0.21463 -1.0249 -0.34788 -0.79001 -0.15084 0.61374 0.042811 0.19323 0.25462 0.32528 0.05698 0.063253 -0.49439 0.47337 -0.16761 0.045594 0.30451 -0.35416 -0.34583 -0.20118 0.25511 0.091111 0.014651 -0.017541 -0.23854 0.48215 -0.9145 -0.36235 0.34736 0.028639 -0.027065 -0.036481 -0.067391 -0.23452 -0.13772 0.33951 0.13415 -0.1342 0.47856 -0.1842 0.10705 -0.45834 -0.36085 -0.22595 0.32881 -0.13643 0.23128 0.34269 0.42344 0.47057 0.479 0.074639 0.3344 0.10714 -0.13289 0.58734 0.38616 -0.52238 -0.22028 -0.072322 0.32269 0.44226 -0.037382 0.18324 0.058082 0.26938 0.36202 0.13983 0.016815 -0.34426 0.4827 0.2108 0.75618 -0.13092 -0.025741 0.43391 0.33893 -0.16438 0.26817 0.68774 0.311 -0.2509 0.0027749 -0.39809 -0.43399 0.049531 -0.42686 -0.094679 0.56925 0.28742 -0.015721 -0.059162 0.1912 -0.59814 0.65486 -0.31363 0.16881 0.10862 0.075316 0.34093 -0.14706 0.8359 0.39697 0.52358 -0.0096367 -0.14406 0.37783 -0.596 -0.063192 -0.85297 -0.3098 -1.0587 -1.025 0.4508 -0.73324 -1.2461 -0.028488 0.20299 0.00259 0.31995 0.35744 0.28533 0.228 0.50956 -0.35942 0.32683 0.046264 -0.86896 -0.2707 -0.15454 -0.32152 0.31121 0.44134 0.85189 0.21065 -0.13741 -0.15359 -0.059722 0.027375 0.23724 -0.39197 -0.66065 0.23587 0.032384 -0.64043 0.55004 0.29597 0.14989 0.46079 -0.26561 -0.1607 -0.36328 1.0782 0.31375 0.1149 0.20248 0.032748 0.41082 -0.082536 0.36606 0.18771 0.75415 0.079648 0.24181 -0.60319 -0.37296 -0.047767 0.45008 -0.21135 0.022251 -0.084325 0.18644 -0.14682 0.56571 -0.30995 0.17423 -0.41122 -0.84772 -0.71114 0.69895 -0.13008 -0.34195 -0.30501 -0.12646 0.29957 -0.43488 0.31935 0.2817 -0.20631 -0.48877 0.34477 0.03907 1.6198 -0.6352 -0.0037675 -0.41271 0.30704 -0.50486 0.036385 -0.046386 -0.12004 0.010029 -0.49116 0.041486 0.002979 -0.57694 -0.42088 -0.063218 0.0034244 -0.25093 -0.39689 -0.36984 0.32689 0.01385 0.23634 -0.055199 -0.58453 0.13211 0.50943 0.25198 -0.0088309 -0.21273 -0.48423 0.5234 -0.32832 -0.013821 0.15812 0.46696 0.036822 -0.090878 0.18854 0.20794 -0.42682 0.59705 0.53109 0.19185 -0.16392 0.064956 -0.36009 -0.59882 -0.28134 0.1017 0.02601 0.44298 -0.31922 -0.22432 0.7828 0.041307 0.1742 0.27777 0.43792 -0.84324 0.27012 -0.21547 0.52408 -0.19426 -0.21878 -0.20713 0.092994 -0.15804 0.28716 -0.11911 -0.20688 -0.36482 0.68548 -0.10394 -0.49974 -0.47038 -1.2953 -0.46236 0.44467 0.13337 0.88762 -0.26494 0.080676 -0.20625 -0.51232 0.31112 0.062035 0.30302 -0.33344 -0.20924 -0.17348 -0.43434 -0.45743 -0.077803 -0.33248 -0.078633 0.82182 0.082088 -0.68795 0.30266
queen -0.22184 0.064884 -0.086365 0.51279 0.32543 -0.12934 0.08316 0.091629 -0.30858 -0.94149 -0.088608 -0.10847 0.21129 0.70052 0.26751 -0.040477 0.17364 -0.30757 -0.05212 -0.17512 -0.8409 0.19205 -0.13806 0.3852 0.27247 -0.17401 -0.46626 -0.024944 0.0965 0.30107 0.1802 -0.068892 -0.20452 0.35746 -0.28313 0.28063 -0.011503 0.10674 -0.24369 -0.17907 -0.13202 -0.17021 -0.59409 0.95749 0.20384 -0.042887 0.60685 -0.068825 0.52273 -0.54755 -0.54525 0.43453 0.44516 -0.025659 -0.11531 -0.18587 0.3608 -0.25104 0.72084 -0.05824 0.344 0.47188 0.20461 0.69993 0.48738 -0.90267 -0.10382 0.12704 -0.41078 0.40384 0.09641 0.33173 0.070018 -0.19735 0.15903 0.097236 0.5579 -0.54857 0.091887 0.23397 0.39486 -0.10993 0.10648 -0.25844 0.55624 -0.5397 0.1016 -0.033093 0.10949 -0.44593 0.22759 -0.42394 0.079741 -0.43659 -0.203 -0.42155 0.52501 -0.13325 -0.047647 -0.55514 0.27313 -0.36058 0.39217 0.063712 0.19537 0.42702 0.059883 0.10991 0.049734 0.28878 0.28826 0.68495 0.41031 -0.25327 0.059437 -0.1761 0.085954 0.16996 -0.0834 -0.57049 -0.71907 0.70347 -0.37878 -0.47651 -0.097319 0.14046 -0.018743 -0.14805 0.48686 0.44781 0.5739 0.5402 -0.13905 -0.14129 0.19411 -0.0087851 -0.23293 0.051349 -0.42881 0.58398 0.20918 0.75124 -0.66115 -0.15127 0.2017 -0.5402 0.41303 0.36115 -0.38199 -0.38997 0.15415 -0.21134 -0.56198 0.5193 0.2243 0.5539 0.057824 -0.43428 0.087064 -0.55141 0.58216 0.82845 0.50565 0.14649 -0.36045 0.8249 -0.25254 0.66615 0.32949 0.38154 -0.51031 0.90783 -0.067226 -0.62108 -0.22863 0.30936 -0.21678 -0.08686 -0.27449 0.21552 -0.17032 0.36406 0.39852 -0.16566 0.43411 -0.40548 -0.19907 0.53835 -0.32752 -0.76328 -0.42558 -0.10101 -0.34878 -0.7156 -0.053603 0.5162 0.053542 -0.51026 -0.18184 -0.36726 1.8552 -0.56669 -0.29214 0.27065 0.51873 -0.62641 0.43802 0.042792 0.32292 -0.19796 -0.15116 -0.12337 0.16066 -0.27202 -0.12558 -0.20355 -0.013273 -0.90037 -0.036197 -0.44949 0.050578 -0.22396 0.28727 0.44153 -0.80729 0.10861 -0.00080332 0.064491 0.011235 0.53375 -0.5854 0.34119 -0.068075 0.10167 0.040207 0.33076 0.1061 0.3818 -0.032353 0.065516 -0.32452 0.5815 0.478 0.26177 -0.22771 0.45153 -0.42122 -0.5973 0.28305 0.47875 -0.19059 0.15642 0.22882 -0.317 0.60575 -0.43283 0.33706 -0.17907 0.50241 -0.77599 0.083968 -0.60968 0.095526 0.72448 -0.17796 0.056241 -0.29491 -0.69536 0.49126 0.051395 0.51029 -0.42161 0.42673 -0.28271 0.010129 0.17145 -0.92244 -0.31237 0.24198 -0.2307 0.16144 0.36125 -0.14644 -0.2054 -0.86869 0.2282 -0.2915 0.50015 -0.15411 -0.33083 0.69766 -0.2874 -0.50032 0.11975 -0.17529 -0.31923 0.19985 0.2523 0.1734 0.63594
man -0.29784 -0.13255 -0.14505 -0.22752 -0.027429 0.11005 -0.039245 -0.0089607 -0.18866 -1.1213 0.34793 -0.30056 -0.50103 -0.031383 -0.032185 0.018318 -0.090429 -0.14427 -0.14306 -0.057477 -0.020931 0.56276 -0.018557 0.15168 -0.25586 -0.081564 0.2803 -0.10585 -0.16777 0.21814 -0.11845 0.56475 -0.12645 -0.062461 -0.68043 0.10507 0.24793 -0.20249 -0.30726 0.42815 0.38378 -0.19371 -0.075951 -0.058287 -0.067195 0.2192 0.56116 -0.28156 -0.13705 0.45754 -0.14671 -0.18562 -0.074146 0.60737 0.07952 0.41023 0.18377 -0.08532 0.43795 -0.34727 0.2077 0.50454 0.40244 0.1095 -0.48078 -0.22372 -0.54619 -0.20782 0.13751 -0.16206 -0.24835 0.17124 0.037355 0.14547 -0.056205 0.2644 -0.38029 0.0029947 0.051608 0.21807 -0.071087 0.31543 0.24593 0.34444 -0.36354 -0.12137 -0.013511 0.049564 0.031386 0.10316 -0.44301 0.11663 -0.055576 -0.091434 -0.070799 -0.017031 0.046024 0.096063 0.10148 -0.33467 -0.043516 0.38271 0.018411 0.0049479 0.35587 0.40432 0.4823 0.12416 -0.051926 -0.081769 -0.21542 0.71766 -0.0052553 -0.55428 0.68033 0.20255 -0.19927 -0.11563 0.0030103 -0.74399 -0.21086 0.069584 -0.20315 -0.17027 -0.11292 -0.044594 -0.2145 0.26097 0.36969 -0.65155 0.048649 0.044304 -0.26604 0.23976 -0.38281 -0.02353 -0.020519 -0.52202 -0.30595 0.088525 0.28395 0.15056 0.23202 0.30538 -0.53674 0.21362 0.10999 0.4685 -0.60017 -0.13141 0.18707 0.11636 0.24703 0.17168 0.40658 -0.19039 0.033278 -0.26374 0.28722 0.27659 0.30153 -0.12622 0.5225 0.13887 -0.15012 -0.0038264 -0.074287 0.46348 0.26215 -0.62671 0.21841 -0.26531 -0.75294 -0.36826 0.072989 -0.071807 0.10612 -0.087064 -0.053871 0.22379 0.38538 0.053972 0.21208 0.39662 -0.38609 -0.53 -0.34169 0.067624 0.11835 0.60372 0.21744 -0.12806 0.13802 0.22463 -0.21566 -0.25167 -0.44859 -0.39111 -0.5259 0.21266 1.9729 0.13851 0.32966 0.047626 -0.37787 -0.31769 -0.1283 0.34396 -0.11061 -0.23346 -0.45134 0.1605 -0.32801 0.033373 0.42571 0.42283 -0.16932 0.14068 0.14087 0.20856 -0.24912 0.38337 0.43722 -0.090575 0.021208 -0.22334 -0.42596 -0.47252 -0.1995 0.32459 0.39765 -0.091573 -0.073528 -0.20074 0.22083 0.011314 0.11977 -0.14888 -0.27152 0.28908 0.20407 0.098377 -0.1424 -0.059699 0.032529 -0.1877 0.24643 -0.1128 0.14666 0.076001 0.31109 -0.22119 0.033051 0.066731 1.5449 -0.11096 0.26438 0.1791 0.039628 -0.46497 0.40052 -0.057004 0.11391 0.42397 -0.57411 0.17205 0.44401 -0.030134 -0.22061 0.47222 -0.12734 -0.12288 0.33832 0.41698 0.18355 0.093473 -1.9373 0.053236 -0.10361 0.056681 -0.12726 -0.11681 0.55039 0.33644 0.27706 0.71184 -0.1304 0.26108 -0.2481 0.0032735 -0.16505 0.11827 -0.26322 -0.10169 0.24275 0.16927 -0.15809 0.27613 -0.2832 0.50554
woman -0.51821 -0.13809 -0.41185 -0.13133 0.0035659 -0.31205 -0.31242 -0.43538 -0.27017 -1.1338 0.19282 -0.23786 0.0028892 -0.027078 0.14747 -0.051265 0.089021 -0.12337 -0.40892 -0.39197 -0.5665 0.40684 -0.057313 0.18613 -0.33095 -0.25243 0.33452 -0.23104 -0.0099149 0.24269 -0.57504 0.30122 -0.33779 -0.294 -0.80202 0.44674 -0.40296 -0.21026 0.1072 0.53937 0.63971 -0.3154 -0.082537 -0.038314 -0.058821 0.11235 0.50928 0.14656 -0.18988 0.24132 -0.038442 0.071418 0.38471 0.10584 -0.52786 -0.057574 0.13771 -0.48613 0.62553 -0.3308 -0.065539 0.1791 0.62746 0.087208 -0.60422 -0.64595 -0.2389 -0.1585 -0.07948 -0.037848 -0.205 -0.44504 -0.21127 -0.0026664 -0.0080152 0.39607 0.069091 -0.34379 -0.13992 0.084029 -0.40245 0.094426 0.28908 0.6216 -0.4132 -0.12153 -0.40676 -0.05771 0.17415 0.094069 -0.65955 -0.34154 -0.079291 0.16867 0.31665 -0.072868 -0.44181 -0.19555 0.16942 -0.197 0.17484 0.11972 0.012957 -0.32238 0.33737 0.35553 0.82906 -0.37521 0.34777 -0.13105 -0.046688 1.2125 0.025435 -0.36021 0.65259 0.63729 0.23457 0.19874 0.22589 -0.016769 0.10671 0.86805 -0.02853 -0.011634 -0.39911 0.12429 -0.066363 0.0080237 0.41826 -0.60603 0.26269 0.035625 -0.10225 0.44362 -0.38952 -0.054241 -0.31542 -0.076452 -0.33072 0.42178 0.29242 0.13222 -0.14896 0.32047 -0.4735 -0.1093 0.31163 0.49836 -0.20143 0.36058 0.32242 -0.11148 0.6416 0.20955 0.035183 0.16684 -0.41427 -0.41894 0.18777 0.39424 0.25784 0.18818 0.60567 0.15537 -0.27121 0.054047 -0.18342 0.29789 0.35805 -0.40148 -0.019914 -0.019742 -0.56609 -0.25878 -0.036075 0.0093725 -0.25284 -0.061715 -0.26441 0.47597 0.087956 0.051997 0.21366 -0.0034455 0.1739 -0.16853 -0.22233 -0.1006 -0.032696 -0.008549 0.036532 -0.19339 -0.28571 -0.29294 -0.53655 0.16387 -0.36861 -0.52443 -0.84287 0.26247 1.8261 0.029467 0.19155 0.28406 -0.1017 -0.31416 -0.084328 0.42934 0.32851 0.41274 -0.080323 0.063666 -0.18441 0.13328 0.46 -0.24984 0.12574 -0.49056 -0.072603 0.28191 -0.25738 0.40629 0.38381 -0.37685 -0.16371 0.30354 -0.38234 -0.61633 -0.22076 0.38153 0.54091 -0.32349 -0.032075 -0.051326 -0.12465 0.19237 -0.077144 0.27005 -0.20103 -0.26512 0.35769 -0.23437 0.054273 0.16901 -0.15758 0.42714 0.23167 -0.021318 0.3086 0.44873 -0.12432 -0.15715 -0.099448 -0.24825 1.156 -0.38925 -0.0063171 0.48928 0.46089 -0.17058 0.06118 -0.54 -0.054482 0.13329 -0.47944 0.17119 0.26289 0.14383 -0.30443 0.27534 -0.14711 -0.52172 0.32909 -0.15149 0.1539 0.24171 -1.6971 0.027579 -0.0073776 0.30144 0.011751 0.012419 0.38711 -0.044167 -0.62495 0.74536 0.043054 0.62925 -0.33381 -0.048651 0.09395 -0.20336 -0.055232 0.096572 0.09321 -0.17298 -0.20794 0.37342 -0.030166 0.73014
apple -0.20842 -0.019668 0.063981 -0.71403 -0.21181 -0.59283 -0.15316 0.044217 0.63289 -0.84821 -0.21129 -0.19763 0.19029 -0.56226 0.27126 0.23782 -0.5189 -0.24518 0.035243 0.096833 0.24898 0.71279 0.038279 -0.10514 -0.4779 -0.39515 -0.27194 -0.44428 0.06113 -0.2318 -0.35901 -0.18239 0.035507 -0.087719 -1.0816 -0.42521 0.003224 -0.45991 -0.043462 -0.39031 0.519 0.21139 -0.25527 1.1805 -0.19041 -0.12156 0.034186 -0.062316 0.14421 -0.53366 0.47425 -0.4471 0.58047 0.43578 0.1321 -0.095712 -0.37182 -0.013837 0.20601 -0.10099 0.10685 -0.33723 0.10986 0.34796 -0.099839 0.36942 -0.52917 0.12407 -0.46127 -0.38483 -0.10114 -0.17634 0.37574 0.16377 -0.2198 -0.26841 0.84706 -0.35619 -0.083992 -0.20276 -0.56542 0.19112 -0.14134 -0.7812 0.69188 -0.083628 -0.54293 0.16437 0.037606 -0.68896 -0.68711 -0.13367 -0.4779 0.20125 0.085122 -0.063865 -0.17104 -0.32432 -0.17623 -0.514 -0.50289 0.23204 -0.11324 -1.064 -0.035359 -0.5068 -0.27118 -0.16621 -0.63016 0.054252 -0.048178 0.29282 -0.030666 -0.24645 -0.27084 -0.42563 -0.39171 0.18428 -0.017772 -0.35334 -0.49075 -0.90782 0.13872 -0.76521 -0.46318 -0.32124 -0.086228 1.0448 -0.39919 0.69478 -0.10377 0.86715 0.22742 0.4384 0.085767 -0.22846 0.4309 0.064187 -0.027926 -0.093056 0.65188 0.59143 -0.3376 -0.37732 0.0052212 1.1193 -0.23845 -0.16029 0.42877 -0.16228 -0.12202 -0.1061 0.015761 0.022745 -0.17734 -0.091711 -0.29158 0.19034 -0.35168 0.27563 -0.20577 0.11472 -0.34126 -0.0065915 0.14896 -0.026762 0.0019373 0.53279 -0.76088 0.063085 -0.72089 -0.04128 -0.96164 0.020769 0.16123 -0.34342 0.69713 -0.16018 -0.11701 -0.070239 -0.30774 0.39741 0.39994 -0.678 0.57684 -0.48099 0.59317 -0.42262 0.28613 -0.26203 0.052727 0.61659 -0.36801 -0.28429 -0.40054 -0.30055 -0.27444 -0.045729 -0.56105 0.24176 0.86631 -0.83715 0.13562 0.26196 -0.43055 0.34558 0.059441 0.61845 0.11837 -0.019168 0.47697 -0.32465 -0.15463 -0.23556 -0.64263 -0.092156 -0.19622 0.40666 0.18009 0.094309 0.046917 0.26369 -0.50727 0.37491 -0.66773 0.35095 -0.033835 0.30534 0.23166 0.023526 -0.68365 0.26078 -0.22526 -0.2656 0.59967 0.2598 0.36248 0.15564 -0.45549 0.11153 -0.33287 0.081364 -0.36989 -0.25543 -1.1628 -0.14622 -0.032971 -0.55619 0.47717 -0.29021 0.42688 1.2397 -0.81391 0.21084 -0.25426 -0.08684 -0.078412 0.26035 0.3281 -0.23777 0.05138 -0.030247 -0.15669 0.057147 0.33902 0.12795 -0.21468 -0.75208 0.41422 0.0062719 -0.52904 0.92193 -0.42179 -0.69638 0.074115 0.19071 -1.2031 -0.081333 -0.4914 -0.22159 -0.29876 0.30094 0.018634 0.18786 -0.45429 -0.29296 0.3695 -0.24218 -0.11803 0.071775 0.44026 -0.59978 0.45354 0.17854 -0.17155 0.018811 -0.62354 -0.014163 0.16799 -0.064392
orange -0.24776 -0.12359 0.20986 -0.15834 -0.15827 -0.90116 -0.095702 -0.23005 0.27094 -0.18885 -0.6094 -0.29146 -0.14547 -0.17566 0.7757 0.23427 -0.7334 -0.34034 -0.56997 -0.046918 0.024907 -0.18274 0.14792 0.18595 -0.046665 -0.55657 -0.38182 0.21155 -1.1388 0.24632 -0.2749 -0.21952 -0.69771 0.05891 -0.37058 1.0525 -0.19563 -0.17864 -0.24309 0.021318 -0.055165 -0.27761 -0.21785 0.52323 0.16326 -0.54557 0.0014319 -0.087846 0.61443 -0.72582 -0.061206 0.35182 0.55001 -0.67038 -0.060339 -0.0018221 -0.28547 -0.36713 0.66334 -0.83004 -0.26006 -0.39763 -0.38772 0.41361 0.22863 -0.6484 -0.14765 -0.13465 -0.18154 -0.54855 -0.0749 0.21009 0.055898 0.54107 -0.53956 -0.28911 -0.062195 0.033496 -0.27442 -0.24379 0.60123 0.33735 -0.45934 0.22089 0.28856 -0.54551 0.034183 0.48993 0.038962 -0.045273 0.1544 -0.3798 -0.11647 0.061435 -0.43743 0.77289 0.31942 -0.069738 0.023407 0.10732 -0.089489 -0.10486 0.042569 -0.026284 0.33343 0.21235 0.07399 0.18305 -0.50787 0.11003 -0.41798 0.10016 0.51145 0.036357 0.049747 -0.25304 -0.11242 0.84524 -0.098083 -0.44179 0.35958 -0.65623 0.39122 -0.35646 -0.79987 -0.055275 -0.038645 0.43572 0.071285 0.44192 -0.40933 0.026579 -0.55951 0.18181 -0.16561 -0.17277 -0.20476 -0.47509 0.19047 0.025337 0.56109 0.23522 -0.048615 0.020294 0.15802 0.45451 -0.23932 0.068622 0.50821 -0.24706 0.80493 0.054989 0.46609 -0.18083 0.73783 -0.27206 0.26418 -0.49461 -0.024973 0.19331 -0.37615 0.33468 -0.24353 0.18171 0.041497 -0.063388 0.036015 0.28952 -0.52935 -0.063903 0.69211 0.1215 -0.62731 0.26627 0.36438 -0.77108 0.40561 -0.3078 0.55919 -0.32124 -0.14276 0.070346 0.19114 -0.3929 0.004516 -0.73871 0.8074 0.1354 -0.12414 -0.79568 0.058827 0.48552 -0.2902 -0.11301 0.018115 -0.16892 -0.42663 -0.2062 -0.21115 0.42126 0.91802 0.07018 -0.010133 -0.16455 0.21174 0.14027 0.52289 0.75919 0.050752 0.75467 -0.007933 0.23611 -0.68522 -0.42567 0.34091 0.020985 1.0518 -0.031345 -0.086061 -0.57768 1.3026 -0.37067 -0.35319 0.052281 -0.16382 -0.46568 -0.10996 -0.42071 -0.50616 -0.50337 -0.31583 0.47216 -0.053558 0.15372 0.31001 -0.10349 0.17909 -0.32471 -0.16194 -0.53479 -0.13764 -0.71118 0.18695 0.16932 -0.73799 0.037364 1.0209 -0.42802 0.13443 -0.35761 0.39819 0.43802 -0.16397 -0.15303 0.27137 -0.5281 0.31447 -0.11779 0.2753 -0.20477 0.19547 0.14832 0.7838 -0.34746 -0.5382 -0.74684 -0.30637 -0.23923 -0.1677 0.30751 -0.11028 -0.0076799 -0.21395 -0.055122 -0.44104 0.13752 -1.3948 -0.11891 -0.36035 0.051432 0.0089858 -0.029622 -0.20384 -0.235 -0.065453 0.54828 -0.33196 -0.11157 -0.0050479 0.13196 0.33844 -0.15593 -0.10277 -0.082953 0.43793 -0.22457 0.31513 0.079717 0.23865 -0.014213
france -0.055966 0.33098 -0.48706 -0.63245 0.072906 0.54625 -0.040818 -0.068302 0.017669 -1.7192 0.63679 -0.14927 0.21591 -0.45068 0.30043 0.21499 -0.07414 0.55876 0.10662 0.28551 -0.3689 0.72203 0.15396 0.11345 -0.60126 -0.57111 0.41505 -0.20347 0.16531 0.63124 -0.77005 -0.3026 -0.50839 0.55926 -1.038 -0.68186 0.57905 -0.42094 -0.3888 -0.19517 -0.43155 -0.31099 0.36055 -0.39106 -0.58718 -0.15774 0.13408 0.75595 0.16151 -0.37458 0.10214 0.12893 0.9727 -0.58133 0.44972 0.02003 -0.35883 -0.063266 0.47629 -0.40336 -0.37269 0.56424 -0.52578 -0.24461 -0.7874 -0.81476 0.31068 0.055933 -0.37837 -0.26595 -0.07701 -0.20037 -0.15868 -0.09022 -0.21265 -0.018562 -0.018781 0.144 -0.72747 -0.039233 -0.10749 0.037988 0.15168 0.71152 -0.23795 0.064947 0.31126 0.069939 -0.46109 -0.4581 0.33955 -0.47408 0.44543 -0.2303 0.26445 -0.14113 -0.2452 0.65596 -0.35718 0.078136 -0.43686 0.072648 0.33366 -0.2097 0.52535 0.063034 -0.26364 0.33701 -0.15457 0.47752 0.3591 -0.25345 0.37681 -0.64692 -0.055199 -0.35584 0.055432 0.71769 0.19166 0.10678 -0.30252 -0.021128 -0.051167 -0.55438 -0.1986 0.62892 -0.63701 0.28693 0.27626 0.34279 0.47562 -0.065373 -0.064048 -0.41519 -0.35064 -0.40783 0.45085 -0.50531 0.27776 -0.43899 -0.16439 -0.25692 -0.0053715 -0.039016 -0.091245 -0.44833 -0.28659 -0.81737 -0.057906 0.41293 0.62307 -0.35825 0.062524 0.027088 0.3294 0.083387 -0.4397 -0.0043705 -0.65431 -0.18451 0.12614 -0.011859 -0.3374 0.027249 0.42567 0.54902 0.029459 -0.67886 -0.25666 0.37696 0.22621 0.35936 0.064466 -0.83238 -0.26073 0.39573 -0.18747 -0.37337 -0.28883 1.1036 -0.13651 0.1114 0.044952 -0.33704 0.75452 -0.16587 -1.3352 0.67671 -0.5944 -0.30932 -0.37772 0.00046474 0.15142 -0.38775 -0.099708 -0.94751 -0.11036 0.11209 0.29644 0.18328 1.2896 -0.20671 -0.65376 -0.16972 0.57084 -0.0060047 -1.0059 0.16858 -0.53043 -0.12424 -0.08961 0.4576 -0.1454 0.35346 0.30197 0.23056 0.28004 -0.69333 0.54768 -0.29636 0.55402 0.18283 -0.038603 -0.64959 -0.32164 -0.050521 0.66065 0.21459 -0.11346 0.13104 -0.16482 -0.27077 -0.37089 0.26073 0.32221 0.33063 0.029957 0.70487 0.37762 -0.15694 -0.43349 -0.060576 0.62632 -0.40047 0.67239 0.040707 0.079469 -0.52537 -0.0022598 -0.32231 0.1241 0.20315 0.72522 0.43114 -0.1091 -0.1631 -0.35959 -0.35122 -0.43144 -0.1875 0.83869 0.085325 -0.23705 1.1001 0.38692 0.37339 -0.72893 -0.10522 0.13405 0.047224 0.31673 0.34673 -0.35407 -0.17806 -0.10423 0.20275 -1.6813 -0.48924 0.64335 0.19622 0.66399 0.18485 -0.15111 -0.29832 0.31045 0.48917 0.33887 0.76722 -0.134 0.55847 0.4451 -0.096998 0.09862 -0.19646 0.40751 0.43885 0.20325 -0.11074 0.23883 -0.65954
germany 0.046596 0.18904 -0.46218 -0.36952 0.49638 -0.084072 -0.21817 0.10112 0.22574 -1.8982 0.4634 0.34359 0.080282 -0.17099 0.12771 -0.57395 0.3355 0.048452 0.10111 0.11154 0.74975 0.21449 0.093244 0.39629 -0.82285 -0.4786 0.15886 0.32569 -0.4413 0.47514 -0.82776 -0.0091277 -0.11681 0.31074 -0.73891 -0.93395 0.47229 0.061625 -0.23209 0.091641 -0.6454 -0.41851 -0.1191 -0.8377 -0.22462 -0.13239 0.46743 0.42136 0.085805 -0.4119 -0.12885 -0.3719 -0.074528 0.25856 0.42807 -0.10703 0.15059 -0.093651 0.00020426 0.27187 -0.77064 0.12115 -0.51601 -0.90579 0.055391 -0.41215 -0.10934 0.55614 -0.11423 -0.22789 -0.3136 0.39942 -0.17418 -0.32829 -0.018092 -0.30644 -0.60059 0.55119 -0.079793 0.40236 -0.090854 -0.32376 -0.16997 0.23463 0.75075 0.5867 -0.16544 0.089686 -0.39967 -0.048933 0.20688 0.01057 0.29394 -0.22833 0.33369 -0.41849 -0.028932 0.79906 -0.69466 -0.41362 -0.40735 -0.54909 0.04779 -0.20116 0.32808 -0.49723 0.48904 0.39019 -0.57577 0.25102 0.48658 0.079282 0.089703 -0.37535 -0.084325 0.28171 -0.50114 0.0056733 -0.079146 -0.44476 0.29921 0.088691 0.44266 -0.16471 0.081618 0.94206 -0.0056012 0.14982 0.024455 -0.42174 -0.040294 0.43824 0.046113 0.1855 -0.75827 0.058845 0.28938 -0.0095693 0.038061 -0.049673 0.10547 -0.1924 -0.025505 0.071931 0.50595 0.34814 0.15281 -0.45152 -0.43343 0.45366 0.36144 0.18477 0.008504 0.1415 0.16374 0.46635 -0.093285 0.1958 -0.3629 0.1901 -0.25292 -0.16623 0.40528 -0.32054 0.74378 1.1915 0.32155 0.047077 0.31221 -0.1781 0.73097 0.37333 -0.25939 -0.36473 -0.25395 0.29954 0.53114 -0.40312 0.24995 0.94325 0.2663 0.23605 -0.86847 -1.0634 1.0301 -0.21658 -1.1831 -0.50515 -0.096721 -0.13074 0.0060968 0.020941 0.011997 -0.084362 -0.41398 -0.37339 0.5611 -0.54758 0.087178 0.074864 1.1872 0.053332 -0.77 -0.098641 -0.43487 -0.33498 -0.67023 0.047192 -0.43604 -0.26619 -0.29983 0.19651 -0.25937 0.12411 0.076934 0.13771 -0.1147 0.37667 -0.12897 -0.21604 0.48092 -0.061375 0.095193 -0.24116 -0.40125 0.20202 0.022887 -0.34533 0.11999 -0.20539 -0.045075 -0.29034 0.42979 0.54485 0.014853 0.029321 -0.28414 0.65476 0.64791 -0.26195 -0.80182 0.50255 0.6253 -0.32873 0.52968 0.24924 0.30055 0.1714 0.16186 -0.0094696 -0.12293 -0.40749 0.51695 0.68097 -0.13849 0.099114 -0.39958 -0.56245 -0.071594 0.041159 0.51042 -0.39967 0.70918 0.092197 -0.42696 -0.11023 -0.97495 -0.31463 0.019504 -0.60017 -0.17973 -0.17978 -0.45234 0.046427 -0.26432 -0.19633 -1.5363 -0.38197 0.79408 -0.0037235 -0.1093 0.4954 -0.91031 -0.11928 0.53723 0.42657 0.29081 0.56418 -0.48337 0.55939 0.24139 0.027593 0.20519 0.3665 0.2922 0.72185 0.43242 -0.54401 0.72344 0.0443
paris 0.28199 -0.043577 -0.2124 -0.21808 0.011582 0.68073 0.14141 -0.65408 -0.24018 -1.2406 0.25264 0.093059 0.10044 -0.12632 0.28635 -0.41236 -0.20691 1.017 -0.030727 0.068091 -0.68231 0.22978 0.05009 -0.20364 0.0042394 0.16111 0.74833 -0.18374 0.14595 0.11187 0.13203 -0.40161 -0.51074 0.48299 -0.74545 -0.60836 -0.34012 -0.20061 -0.39181 -0.3536 -0.60125 -0.2329 -0.2026 -0.20523 -0.2513 0.60259 0.45206 0.79084 -0.41254 0.0914 0.56369 -0.29844 0.43713 -0.072453 0.71561 -0.035902 -0.34715 -0.25686 0.45094 -0.87308 -0.30307 -0.041459 -0.10798 0.079901 -0.45833 -0.34136 0.36961 -0.22566 -0.35681 -0.96082 0.15329 -0.65339 -0.073236 -0.35196 -0.74962 -0.14861 0.44424 0.30845 -0.76782 -0.087392 -0.077144 0.033204 -0.021112 0.39325 -0.45578 0.19315 0.48686 0.10503 -0.57617 -0.15436 0.039685 -0.88032 0.27731 -0.064281 0.36353 0.025382 -0.063584 0.17464 -0.003299 -0.67672 -0.32986 -0.35535 0.52922 0.42591 0.21324 0.12161 0.11509 -0.2616 0.14117 -0.068901 -0.36677 -0.27057 0.2953 -0.11507 -0.034697 -0.40233 -0.092665 0.64552 0.17514 -0.3962 0.41211 -0.087783 0.26083 -0.65571 -0.40451 -0.052374 0.26116 0.0041911 0.026536 0.12979 0.31309 0.33632 -0.03728 -0.38199 -0.62151 -0.54411 0.26699 -0.44797 0.029755 -0.25068 -0.099179 -0.40216 -0.11195 0.073909 0.26017 -0.57881 -0.27945 0.099043 -0.4292 0.27914 0.9321 0.35248 0.095161 0.071436 0.16385 0.13285 -0.36276 -0.0056114 0.271 -0.35501 -0.025851 0.24935 -0.31442 -0.093796 0.3303 0.17051 0.27681 -0.57356 -0.11241 0.27576 -0.30232 -0.37475 0.14209 -0.44751 -0.0053157 0.010731 0.075897 -0.22542 -0.35983 0.62552 0.32309 0.21527 -0.5578 0.32753 0.42099 0.50895 -1.1412 0.40558 -0.2598 -0.57327 -0.034012 -0.51331 -0.14027 -0.33939 -0.30757 -0.93188 -0.54125 0.074733 -0.031524 0.29254 1.0514 -0.17616 -0.21641 0.50981 0.024619 -0.2868 -0.89685 -0.25872 -0.4239 -0.49851 -0.042724 0.33059 0.11374 0.17112 0.38724 0.50684 0.71124 -0.4483 -0.048771 -0.41469 0.67496 -0.34297 -0.092067 -0.018042 -0.60946 0.13741 -0.22383 0.18953 -0.24921 0.13371 0.1985 -0.035524 0.029243 -0.30643 0.71036 0.19823 -0.038375 0.50772 0.44132 -0.13947 0.0097105 -0.56815 0.1696 -0.067455 0.22953 -0.32922 -0.32905 -0.71275 -0.20758 -0.075005 0.32837 -0.018734 0.80648 0.3881 0.12074 -0.037132 -0.197 -0.1018 0.1372 -0.45974 0.2669 0.11846 -0.02926 1.1152 0.57017 0.076513 -0.32253 0.25632 0.27047 -0.23465 0.33096 0.29227 -0.13961 -0.084516 -0.011688 0.35706 -1.3964 -0.4586 0.19003 -0.0067932 0.040139 0.060358 0.23274 -0.8297 -0.15012 0.64283 0.30071 1.0175 -0.48826 0.091817 0.13126 -0.26877 -0.16728 -0.02417 0.51053 0.056331 0.10423 -0.11613 -0.37809 -0.11996
berlin 0.26191 -0.38692 -0.37203 -0.10643 0.46429 -0.19928 -0.0337 -0.36968 -0.057691 -0.99212 0.018644 0.30477 -0.040811 0.1794 0.17374 -0.41021 -0.080189 0.49095 0.15384 0.29567 0.52147 -0.38161 0.15226 0.058792 0.041678 -0.17706 0.19412 0.25258 -0.40058 0.33814 0.24405 -0.40812 -0.38859 0.31145 -0.38412 -1.1542 -0.16321 0.24111 -0.41928 0.1749 -0.60054 -0.31122 -0.5182 -0.23009 0.063835 0.63385 0.2244 0.3955 -0.38337 -0.26384 0.17852 -0.68346 -0.30011 0.11893 0.63789 -0.32047 -0.037305 -0.030318 -0.10454 -0.16971 -0.73589 -0.080095 0.11155 -0.38098 0.49557 0.11167 0.036552 0.42286 -0.14881 -0.7412 0.00559 0.0017113 -0.016012 -0.21564 -0.3618 0.27121 0.42982 0.93292 -0.12974 0.41059 0.088612 -0.52753 -0.094486 -0.10636 0.32042 0.15802 -0.26688 0.47357 -0.3358 -0.083153 0.4048 -0.47495 0.21006 -0.14175 -0.042732 -0.23838 0.43243 0.29925 -0.50708 -0.81665 -0.27133 -0.59153 0.59507 -0.10996 -0.20008 -0.078016 0.57912 0.0024215 0.18826 0.025047 0.37726 0.47449 0.20193 -0.22636 -0.70113 0.11147 -0.32993 -0.16644 0.1796 -0.89524 0.58446 0.17487 0.77142 -0.15158 0.2577 -0.24803 0.716 -0.056945 -0.37566 -0.83899 -0.19268 0.73744 0.25559 -0.0083361 -0.74917 -0.11999 -0.41006 -0.053657 -0.18361 -0.16297 0.17414 0.15411 -0.20784 0.15631 0.581 0.10867 0.34514 0.054848 -0.36405 0.6719 0.2916 0.64494 0.28247 0.0019689 0.24849 0.51393 -0.13673 0.27877 -0.26737 -0.083686 -0.33944 0.17783 0.34958 -1.051 0.14168 0.63654 0.34369 -0.15911 0.26756 0.0054471 0.33644 -0.30148 -0.22156 -0.54387 0.18764 0.062875 0.5022 -0.43309 -0.22537 0.20095 0.64983 0.40884 -0.94535 -0.30821 0.36865 0.44012 -0.93727 -0.55846 0.23879 -0.19574 0.14615 -0.34926 -0.20665 -0.39779 -0.49912 -0.16717 -0.20055 -0.32389 -0.1934 0.37458 1.1682 -0.0038228 -0.46155 -0.022693 -0.78231 -0.41311 -0.31704 -0.13894 -0.05044 -0.41177 0.13394 0.027373 -0.37398 0.10004 0.12199 0.27883 0.19944 0.12491 -0.152 -0.3677 0.63485 -0.32051 0.020788 0.22434 -0.43293 0.17249 -0.44622 -0.25124 -0.16298 -0.37398 -0.014156 -0.25192 0.62224 -0.021528 0.15203 -0.36559 -0.14627 0.054342 0.73009 -0.312 -0.47969 -0.31441 0.42386 -0.25189 0.24084 0.1613 -0.3655 0.056947 0.01121 -0.12769 0.16656 -0.16165 0.24219 0.60081 0.42132 0.25081 -0.042555 -0.62252 0.4517 -0.12899 -0.019707 -0.31205 0.85061 0.29421 0.28277 -0.19621 -0.295 -0.045406 0.37214 -0.47921 -0.040713 0.1808 -0.46242 -0.099347 0.17696 -0.1711 -1.1276 0.12107 0.40143 -0.14801 -0.74434 0.22365 -0.43944 -0.45305 0.18936 0.56574 0.08775 0.58517 -0.28641 0.30764 0.28632 -0.23883 0.16619 -0.18333 -0.03826 0.26233 0.43068 -0.27259 0.078249 0.23799
