king -0.49346 -0.14768 0.32166 0.056899 0.052572 0.20192 -0.13506 -0.030793 0.15614 -0.23004 -0.66376 -0.27316 0.10391 0.57334 -0.032355 -0.32766 -0.2716 0.32919 0.41305 -0.18085 1.5167 2.1649 -0.10278 0.098019 -0.018946 0.027292 -0.7948 0.36631 -0.33151 0.2884 0.10436 -0.19166 0.27326 -0.17519 -0.14986 -0.072333 -0.54371 -0.29728 0.081491 -0.42673 -0.36406 -0.52035 0.18455 0.44121 -0.32196 0.39172 0.11952 0.36979 0.29229 -0.42954 0.46653 -0.067243 0.31216 -0.17216 0.48874 0.2803 -0.17577 -0.35101 0.020792 0.15974 0.21927 -0.32499 0.086022 0.38927 -0.65638 -0.67401 -0.41896 1.2709 0.20857 0.28315 0.58238 -0.14944 0.3989 0.52681 0.35714 -0.39101 -0.55372 -0.56642 -0.15762 -0.48004 0.40448 0.057518 -1.0157 0.21755 0.073296 0.15237 -0.38362 -0.75308 -0.0060254 -0.26232 -0.54102 -0.34347 0.11113 0.47685 -0.7323 0.77597 0.015216 -0.66327 -0.21144 -0.42964 -0.7269 -0.067968 0.50601 0.039817 -0.27584 -0.34794 -0.0474 0.50734 -0.30777 0.11594 -0.19211 0.3107 -0.60075 0.22044 -0.36265 -0.59442 -1.2046 0.10619 -0.60278 0.21573 -0.35362 0.55473 0.58094 0.077259 1.0776 -0.1867 -1.5168 0.32418 0.83333 0.17366 1.1232 0.10863 0.55889 0.30799 0.084318 -0.43178 -0.042287 -0.054615 0.054712 -0.80914 -0.2443 -0.076909 0.55216 -0.71896 0.83319 0.020735 0.020472 -0.40279 -0.28874 0.23758 0.12576 -0.15165 -0.6942 -0.25174 0.29591 0.4029 -1.0618 0.19847 -0.63463 -0.70843 0.067943 0.57366 0.041122 0.17452 0.19431 -0.28641 -1.1363 0.45116 -0.066518 0.82615 -0.45452 -0.85652 0.18105 -0.24187 0.20153 0.72298 0.17415 -0.87328 0.69815 0.024706 0.26174 -0.0087155 -0.39349 0.13801 -0.39299 -0.23057 -0.22611 -0.14407 0.010511 -0.47389 -0.15645 0.28601 -0.21772 -0.49535 0.022209 -0.23575 -0.22469 -0.011578 0.52867 -0.062309
queen 0.46613 -0.097647 -0.072473 -0.037131 -0.16997 -0.27496 0.12287 -0.22712 0.20661 -0.26579 -0.73175 0.04127 -0.034256 0.42772 -0.43108 -0.31798 -0.89063 -0.2336 0.45515 0.16034 1.6489 1.212 0.79226 0.88655 -0.55525 -0.22675 -0.33682 0.25944 -0.53147 0.31333 0.59658 0.0027182 -0.075449 0.57021 0.05248 -0.33832 -0.89347 -0.55822 0.40884 -0.058441 -0.44249 -0.45203 -0.22329 0.49517 -0.33914 0.32931 0.29195 -0.49897 -0.03148 0.11481 -0.011957 -0.27458 0.024703 -0.26058 0.49194 0.22395 -0.21505 -0.50429 0.13684 0.32674 0.020277 0.1657 0.21513 -0.30334 -0.34348 -0.14223 0.029226 0.73689 0.67669 0.20886 0.078839 -1.063 1.1175 1.0925 -0.070306 -0.1898 -0.94241 -0.10542 0.16505 -0.26416 0.10916 -0.053681 -1.0354 0.30089 0.80407 0.0075789 -0.45104 -0.6831 0.35023 0.063273 -0.38284 0.096519 0.49855 0.28716 -0.29004 -0.049674 0.27225 0.058429 -0.38517 -0.45074 -0.39493 0.26758 0.22064 -0.37331 -0.19938 -1.0215 0.14768 0.61948 0.23181 0.17939 -0.25014 0.1676 -0.5496 -0.03261 -0.36617 -0.54396 -0.23761 0.43083 -0.43542 0.16716 -0.99858 0.32636 0.70503 -0.094633 1.0047 -0.24018 -1.0614 0.77292 0.39854 -0.34359 0.44889 -0.35791 0.47578 0.089563 -0.096857 -0.63943 -0.043343 -0.25196 0.25285 -0.33575 -0.2613 -0.062979 0.83014 -0.405 0.35933 -0.196 -0.11406 -0.59677 0.020229 0.27533 -0.23949 0.14124 -0.021374 -0.23034 -0.010372 0.21631 -0.15249 0.71452 -0.44354 -0.20838 0.43927 0.28849 -0.059272 0.30659 0.23118 0.083453 -1.3945 -0.729 -0.27154 0.69923 -0.6055 0.17828 0.3437 -0.015858 0.053038 0.20467 -0.13347 -0.96718 0.92524 0.1536 1.0056 -0.15639 -0.065569 -0.0020914 -0.023455 -0.26387 0.12001 0.042561 0.36163 -0.22935 0.19615 0.83526 -0.72081 -0.66962 0.44299 0.11256 0.45083 -0.018625 0.69417 0.21472
man 0.10627 -0.58248 -0.27217 -0.26772 -0.11844 -0.0013373 -0.18707 0.1511 0.20336 -0.50561 -0.056029 -0.14278 0.27876 0.5657 0.10539 0.20012 -0.10245 0.38694 0.0049881 -0.20792 0.43314 2.7799 -0.0037724 -0.15376 0.003544 -0.32788 -0.22937 -0.32938 0.10435 0.1837 -0.20869 -0.12898 0.19762 0.57719 0.48807 -0.22012 -0.7815 -0.26464 -0.46928 0.4823 -0.72708 0.017301 -0.35347 0.16986 -0.40509 0.031622 -0.085332 0.11077 0.23554 -0.18391 0.23047 0.50146 0.18733 0.33038 0.38698 -0.16126 -0.12255 -0.064396 0.52114 -0.19056 -0.29464 -0.2826 -0.84987 0.208 -0.04265 -0.30999 0.45363 0.34151 -0.0066935 0.062788 0.043688 -0.31161 -0.17607 0.65094 -0.58473 -0.36569 -0.34423 -0.43389 0.065343 -0.12442 0.17572 -0.284 0.019135 -0.53385 -0.40021 0.21464 0.014933 0.016345 -0.31991 -0.68469 -0.057154 0.31403 -0.28191 0.62003 -0.59969 0.075217 -0.17093 -0.21516 0.31219 0.64726 0.057606 -0.23318 0.17409 0.18636 0.12784 -0.85055 -0.12307 1.1455 -0.037782 0.32608 0.32714 -0.41493 -0.03378 -0.020761 -0.7491 0.26303 -0.34439 0.32692 -0.70086 -0.046634 -0.050236 0.2561 0.046046 0.2167 0.027547 -0.19104 0.29514 -0.26253 0.51427 -0.47265 -0.3965 -0.014644 0.11092 -0.42111 -0.17097 -0.27003 0.23945 0.2782 -0.75243 -0.12806 0.49752 0.25289 0.73583 -0.25678 1.8087 0.26838 0.58882 0.044866 0.43145 0.2781 0.34408 0.17439 -0.12762 0.11552 -0.39833 0.12771 -0.22887 -0.14351 -0.52339 -0.29325 0.088909 0.84056 0.1871 -0.13646 0.19423 -0.66192 8.5687e-05 0.24278 -0.6809 -0.06271 0.25439 -0.30117 0.38821 0.13239 -0.31887 -0.27511 -0.47149 -0.30114 0.32686 -0.0038738 1.0342 0.173 -0.77236 0.059479 -0.38417 -0.26487 0.081626 0.11445 0.15213 0.12093 -0.34896 -0.13335 0.23203 -0.021832 0.65154 0.11376 0.13703 0.45007 0.05151 0.70033
woman 0.52487 -0.11941 -0.20242 -0.62393 -0.1538 -0.066337 -0.3685 0.028649 0.13795 -0.58782 0.60209 0.026054 0.70789 0.12033 -0.017431 0.40336 -0.31968 -0.25061 0.16089 0.24765 0.77936 2.7407 0.11959 -0.26753 -0.38281 -0.33658 0.14104 -0.46548 -0.089208 0.22254 -0.036074 -0.071014 0.6232 0.32277 0.41565 -0.036853 -0.58286 -0.62651 -0.032617 0.27479 -0.26695 0.052769 -1.095 -0.0019976 -0.74939 -0.019 -0.18762 -0.51933 0.17159 0.44069 0.19079 -0.045734 -0.024307 0.23271 0.10218 -0.060279 -0.26368 -0.14909 0.43389 -0.085142 -0.66142 -0.062338 -0.13792 0.45408 -0.1514 0.11493 0.54865 0.28237 -0.25513 0.11115 -0.084748 -0.096632 0.4882 0.74807 -0.67491 0.32195 -0.89881 -0.35816 0.085464 -0.16739 -0.16011 -0.10635 -0.29665 -0.30339 0.22931 0.065158 0.17036 -0.20804 -0.11293 -0.1584 -0.18871 0.53869 -0.035805 0.32677 -0.31886 0.020108 -0.11521 -0.03674 0.059751 0.90983 0.15542 0.16394 0.3575 -0.47579 -0.035352 -1.3073 0.24032 1.2417 0.46318 -0.029002 0.66379 -0.22013 0.65741 -0.23421 -0.74354 0.089503 -0.14127 0.35486 -0.68705 -0.095303 -0.15972 -0.043602 0.053951 -0.13318 0.44753 0.14129 0.027112 0.11818 0.20242 -0.59818 -0.068347 -0.15815 0.24293 0.088819 -0.11622 -0.38268 0.13065 -0.30062 -0.84693 0.019016 0.64101 -0.084244 0.78368 -0.26366 1.9884 -0.073806 0.72197 0.048474 0.16207 0.34084 -0.18529 0.28566 -0.23544 -0.26994 -0.52724 0.27486 0.65693 0.22057 -0.68039 0.3591 0.25143 0.07244 0.25869 0.32251 0.035724 -0.3882 0.11889 -0.29001 -0.63223 -0.14852 -0.12104 -0.17406 0.24868 0.47454 -0.25071 -0.52368 -0.18273 -0.83053 0.61511 -0.38462 0.97492 0.44951 -0.54256 -0.31834 -0.50781 -0.027374 -0.12638 0.54248 0.48549 0.085529 -0.14251 0.087785 0.24719 -0.23849 0.061457 -0.042313 0.35747 0.097392 -0.3585 0.17027
apple -0.11359 0.20144 -0.47074 -0.028013 0.67625 -1.0141 -0.29246 -0.28873 0.13012 0.31178 -0.25401 0.57485 -0.064537 0.39739 0.13192 -0.23828 -0.12131 0.12915 0.088295 0.77233 0.10574 1.1814 -0.46879 -0.65922 -0.52528 0.10718 -0.25379 0.25619 -0.2911 -0.32413 -0.57895 -0.075895 0.22591 0.69913 0.81007 0.17848 -0.049312 -0.17217 -0.57783 0.56127 -0.46485 -0.093234 0.84768 0.2882 -0.45114 0.2758 0.39131 -0.46888 -0.12888 1.661 -0.62361 -0.45564 -0.065663 -0.23943 -0.22448 0.3533 -0.80996 0.33755 -0.033035 0.2907 0.64122 0.49552 -0.20464 -0.19524 0.18013 -0.71932 -0.89986 0.53544 0.93706 -0.039912 0.86863 0.48379 0.87309 0.029772 -0.62115 0.75214 -0.0059935 -0.13034 -0.31039 0.19417 0.069982 -0.61258 -0.10314 -0.57156 0.21155 -0.37905 -0.16394 0.17009 0.45487 -0.91422 0.51931 0.39979 -0.35567 0.62478 -0.523 -0.51181 -0.12548 -0.47918 -0.038184 -0.23822 0.44318 -0.04997 -0.42665 0.57632 0.3109 0.75046 0.31248 0.83154 -0.59232 -0.21251 0.10509 0.2526 -0.48295 -0.63916 -0.10559 -0.98543 0.49253 0.14041 -0.80972 0.039336 0.086002 0.53562 -0.49012 -0.23289 0.78924 0.30649 -0.10165 0.39413 0.35494 0.040615 -0.53522 -0.76234 0.073993 0.62532 0.12446 -0.063665 -0.65426 -0.2707 -0.14894 0.26618 -0.2089 -0.21238 0.62626 -0.451 0.40376 0.19964 0.13406 -0.58913 0.40292 -0.52463 0.33365 0.57763 -0.16976 0.53655 0.83478 0.25041 -0.86905 0.56033 0.48699 0.054219 -0.11538 -0.81555 -0.37854 -0.058776 -0.66889 1.0314 -0.29201 -0.13211 0.067902 0.64254 -0.30453 -0.81895 0.35305 0.69476 0.33334 0.73319 0.56509 0.26654 -0.027495 0.44564 0.52012 0.93296 0.23757 -0.028203 -0.0075242 0.19025 -0.50202 0.093621 0.1642 0.54909 0.12729 -0.38416 0.24395 -0.18857 0.4942 -0.14013 -0.39927 -0.42846 0.37869 -0.52865
orange -0.33119 -0.76862 -0.73764 -0.25192 0.25437 -0.15956 0.13895 0.049145 0.10644 -0.26197 -0.27859 0.2337 -0.27031 -0.34199 0.68599 -0.68441 -0.52383 0.24381 0.79076 0.10776 -0.010576 1.5526 -0.28401 0.098011 0.32675 -0.38848 -0.56209 -0.10668 -0.24744 0.0057138 0.27846 -0.83317 0.065086 0.38872 -0.051079 0.023256 0.5755 0.53852 -0.057797 0.47412 -0.65005 0.42733 0.16999 0.30294 0.11265 -0.062242 0.63366 -0.6712 -0.17185 0.63784 0.0024743 -0.24606 0.1313 0.50614 -0.32478 0.18199 -0.64679 0.12397 0.11811 -0.19967 -0.031182 -0.1181 -0.03999 -0.054679 -0.034047 0.16851 -0.24113 0.34509 0.48007 0.10257 -0.27059 0.25102 0.28742 -0.087771 -0.00010569 0.061663 0.27418 -0.10978 0.089602 -0.74259 0.41992 0.13106 0.40295 -0.57437 -0.12797 -0.29054 0.49903 0.32574 0.80007 -0.2535 -0.49055 0.29269 -0.43689 0.47053 0.46616 -0.65758 -0.3877 0.046234 -0.021078 -0.26237 0.40496 0.36424 0.58071 -0.21831 0.16719 -0.075741 0.4274 1.5031 -0.054995 -0.38975 -0.50145 0.53554 -0.051628 0.083521 0.54449 -0.68527 -0.83728 0.1526 -0.38153 -0.31023 0.3843 0.72236 -0.12362 0.12371 0.35406 -0.88776 0.16267 -0.19869 0.13365 -0.15908 0.43669 -0.18703 0.52847 -0.11372 0.18016 -0.53113 0.21471 -1.1616 -0.29302 0.26199 -0.57978 0.5812 1.4366 -0.20162 0.91968 0.48662 -0.018074 0.2071 -0.075091 0.5518 0.084854 0.26946 -0.29311 0.29065 0.66879 0.7211 -0.51544 0.23067 0.67101 0.12007 0.33117 0.32277 -0.3062 0.47243 -0.35565 0.26039 0.14223 -0.15317 0.30078 0.090929 -0.21221 0.068319 0.48611 1.1406 0.44334 0.19979 0.48153 0.039047 -0.38357 0.74589 0.27753 0.22164 -0.12715 0.046392 0.37828 -0.81074 -0.93488 0.30999 0.49459 0.42901 0.39965 0.59362 0.042091 -0.79041 -0.60045 0.68559 -0.21732 0.18388 0.016229 0.14315
france 0.35895 -0.23826 0.10966 -0.20719 0.25959 -0.12635 -0.21755 -1.0249 0.36569 -0.098827 -1.0076 0.38503 0.0078451 0.39194 0.06353 0.29581 -0.43215 0.8419 -0.12609 -0.42416 0.24723 2.3522 0.28514 0.039622 -0.29905 0.51506 -0.67845 0.082014 0.16715 -0.57623 0.48384 -0.45361 -0.12113 0.060057 -0.3261 0.17674 -1.1333 -0.13792 -0.11139 -0.64115 -0.046856 -0.36625 0.026819 0.56172 -0.33858 -0.30754 0.29828 -0.030486 0.1602 -0.49176 -0.4646 0.0623 -0.8098 1.1166 -0.16258 0.49816 -0.94076 -0.36432 0.97526 -0.2105 0.086335 -0.49671 0.19538 -0.065841 0.27487 0.8688 -0.34972 0.299 -0.43865 -0.67921 -0.76558 0.70844 0.97794 0.75151 0.34561 0.2734 -0.35574 -0.25023 0.043579 -0.4468 0.51176 -0.17289 0.2538 -0.20891 -0.093699 -0.29496 0.8703 0.65502 -0.22479 -0.20237 -0.089818 0.2851 -0.64446 -0.54146 -1.0009 -0.6412 0.22023 -0.38737 -0.6744 -0.75765 0.3505 0.60692 0.048801 0.10846 -0.22434 0.65698 0.32763 1.2799 0.34212 -0.19658 -0.58371 -0.3706 0.3367 0.81586 -0.26926 -0.9541 -0.50637 -0.12763 -0.63652 0.33627 -0.0065266 0.75743 0.47637 -0.08603 0.55983 -0.42907 -0.50985 -0.6263 -0.11979 -1.1244 -0.041267 -0.58395 0.02732 -0.55245 0.31962 0.35528 -0.56374 -0.047892 -0.93712 -0.26904 -0.46115 -0.71106 -1.0465 0.04666 0.92866 -0.30804 0.31511 -0.25954 -0.32379 0.26791 -0.071118 -0.43342 0.14789 -0.90603 0.20775 -0.045094 -0.078621 0.12094 0.56834 -0.56051 -0.61078 -1.1862 -0.066136 0.84068 0.59027 0.24977 -0.20199 0.062045 0.52374 0.62419 0.039687 -0.16314 0.073009 -0.27563 -0.025747 0.27912 -0.39414 -0.20131 0.9549 -0.27161 1.1537 -0.63805 0.24133 0.23688 -0.12868 0.080935 0.31995 0.18305 0.62087 -0.053079 -1.2148 0.16307 -0.44674 0.3144 -0.050074 0.21148 0.95315 -0.29231 0.14578 0.72513
germany -0.13017 -0.62753 -0.015186 -0.087395 -0.11605 0.079062 0.59441 -0.66375 1.0093 0.41546 -0.52338 1.3384 0.12546 1.3155 0.49967 0.47705 0.39114 -0.33547 0.27999 -0.2673 -0.10675 2.5974 0.090074 -0.63574 -0.41926 0.3596 -0.45834 0.018393 0.74297 -0.38207 0.33974 -0.71945 -0.62603 -0.20062 -0.91253 0.40214 -0.89249 -0.27152 -0.043663 -0.75051 -0.042918 0.12397 -0.22033 0.23931 0.37125 -0.90033 0.13232 -0.55112 0.40724 -0.88173 -0.0012972 0.24937 -0.41687 0.17019 -0.55293 0.15233 -0.36008 0.30886 0.43646 0.33213 0.13964 0.10226 0.12472 -0.05565 0.22151 0.7347 -0.020917 0.6317 0.32181 -0.059585 -0.35675 0.20782 -0.19689 0.54054 0.60003 0.34821 -0.15117 -0.062275 -0.15888 -0.21218 -0.22082 -0.020818 -0.047335 0.23158 -1.4867 -0.79253 0.51526 -0.37088 -0.2672 -0.096542 0.30134 -0.43375 -0.17934 -0.020962 -0.31732 0.038212 -0.8182 -0.18674 -0.027134 -0.36134 0.51425 0.50338 -0.14612 0.16915 -0.33736 0.20472 0.28161 0.90689 0.07207 0.028373 -0.56139 0.16426 0.30576 0.05697 0.040031 0.14918 -0.25229 0.58538 -0.054894 0.44549 -0.069489 0.8423 0.49829 -0.48992 0.2162 -0.54154 0.086335 -0.3668 -0.72382 -0.1759 -0.0098721 -0.31613 0.3349 -0.90436 0.668 0.20022 -0.73981 -0.18924 -0.6307 0.045388 -0.28242 -0.85276 0.08175 0.24306 0.76667 0.028379 0.11254 -0.35988 -0.38625 0.6937 0.19816 -0.21588 0.36795 -0.61718 0.64773 0.42786 0.015888 0.029372 0.30324 -0.080295 -1.1787 -0.56989 -0.78357 0.085288 -0.13558 -0.10268 -0.092785 -0.36163 0.62766 0.85099 0.39096 -0.20859 0.15432 -0.52672 0.65936 0.20525 -0.78766 -1.0905 0.52559 -0.34423 1.0929 -0.15887 -0.0089608 0.72786 0.11744 -0.48439 0.79012 0.90627 0.33812 -0.22661 -0.60268 0.32258 -0.74514 0.88331 0.51703 -0.099919 -0.64537 -0.15966 -0.063609 0.1202
paris 1.1788 -0.099442 -0.73612 -0.19462 0.19781 -0.30016 -0.47632 -1.2065 0.34731 0.19331 -0.38613 -0.028528 0.13655 0.065636 -0.032003 -0.50839 -0.66302 0.83474 0.14241 -0.66626 0.031119 1.9369 0.422 0.26357 -0.19122 0.70405 -0.19879 -0.42553 0.51601 0.08223 0.025774 -0.39302 -0.12361 -0.10198 -0.098981 0.70486 -0.53722 0.08662 0.37799 -0.52869 0.20184 0.035574 -0.27138 0.12349 0.067828 -0.30686 -0.2085 0.062044 0.24388 -0.16515 -0.59083 0.77309 -0.63758 0.9312 0.016199 -0.31367 -0.24671 0.10452 0.69766 -0.28286 0.10375 -0.46488 0.40488 -0.028813 -0.43486 -0.07266 -0.33642 -0.36334 -0.17213 0.1199 -1.3462 0.14427 0.30326 0.47552 0.88702 0.18662 -0.61644 0.37686 0.12378 -0.1499 0.23013 -0.44141 0.091318 -0.35613 -0.24685 0.49726 0.55584 0.10723 0.57878 -0.19455 -0.2758 0.6086 -0.39123 -0.64143 -1.1398 -0.16021 -0.14769 -0.28601 -0.3714 -0.41565 -0.58277 0.58033 0.011928 0.19917 -0.1465 0.076084 0.29997 1.1558 0.38658 0.19952 0.023271 -0.29207 0.23201 0.74214 -0.34646 -0.9562 0.1074 -0.19733 -0.28107 0.49772 -0.36513 0.60573 0.19713 -0.11709 0.80968 -0.65897 -0.36764 -0.061254 -0.24727 -1.2445 -0.43379 -0.22679 0.35133 -0.12695 -0.256 0.45052 -0.69261 -0.26421 -1.2219 0.32473 0.051953 -0.83986 -0.95728 -0.11371 1.0157 0.50589 0.61505 0.0023706 -0.015311 0.33272 0.57564 0.035762 0.069185 -1.2325 -0.19756 -0.14413 -0.021071 -0.29169 0.016048 -0.46615 -0.081137 -1.2449 0.22978 0.41067 0.23472 -0.32119 -0.14847 0.31305 -0.15355 0.32952 -0.63099 0.092523 0.043883 0.15914 0.043631 0.89525 -0.65106 -0.24012 0.70021 0.20952 1.1013 -0.2773 0.15832 -0.83341 0.57392 0.061596 -0.44441 -0.056363 0.26319 0.2587 -0.41171 0.3797 -0.55267 0.24791 -0.11689 0.17537 0.18365 -0.20956 0.4181 0.35143
berlin 0.53686 -0.53364 -0.46475 0.46516 0.40934 -0.5027 0.29766 -0.97099 0.68443 0.41147 -0.096174 0.81974 -0.033792 0.40136 0.36903 -0.25039 0.64322 -0.010573 0.053924 -0.24166 -0.36471 1.9091 0.43727 -0.040854 -0.19914 0.32269 -0.015262 -0.96708 0.2449 0.21687 0.17895 -0.61052 -0.44031 -0.35947 -0.56262 0.34202 -0.93648 -0.12089 0.61528 -0.8221 0.066835 0.45982 -0.20751 -0.061601 0.70014 -0.24529 -0.1692 -0.31257 0.59222 -0.44154 0.511 0.61004 0.012978 0.064994 -0.19391 -0.32191 0.61117 0.69407 0.1293 0.016967 -0.15636 0.18027 0.31757 -0.063932 -0.34035 0.013986 0.037264 -0.26398 0.49759 0.34861 -0.68667 -0.11257 0.17141 0.15479 0.56348 0.273 -0.32046 0.60652 0.1124 -0.031501 -0.088798 -0.44698 0.11425 -0.12841 -1.243 -0.17098 0.18274 -0.57987 0.56753 -0.30602 0.28661 -0.54196 0.18223 -0.45258 -0.78919 0.31807 -0.82252 -0.39326 0.37703 0.10895 -0.14866 0.45322 0.1173 -0.25952 -0.20415 -0.24575 0.18328 0.58624 -0.018653 0.55349 0.015872 0.197 0.015508 0.10362 0.034303 0.30493 -0.19253 0.47377 0.046342 0.32838 -0.90487 0.30247 0.40888 -0.28812 0.44638 -0.60135 -0.28625 0.32884 -0.23099 -0.25818 -0.16685 -0.14265 0.40299 -0.31218 0.19353 -0.054227 -0.59 -0.0081379 -0.77776 0.79683 0.019477 -0.89817 0.1702 0.093453 0.79653 0.70288 0.0060121 0.051496 0.20914 0.25097 0.35819 0.3391 0.52095 -0.38454 0.6511 0.10426 0.10797 -0.28864 0.31281 0.072433 -0.80016 -0.63995 -0.77564 -0.27002 -0.12312 -0.33554 -0.52232 0.056332 0.4442 0.58733 -0.26067 -0.13881 -0.083456 -0.10964 0.28995 0.43439 -0.93019 -0.82686 0.67119 -0.0030405 0.60188 -0.10838 -0.19922 -0.18895 0.29814 -0.25707 -0.028441 0.64818 0.31741 -0.080313 0.30125 0.16468 -0.66639 0.31072 0.62235 -0.070351 -0.86115 0.57146 -0.033988 -0.11644
