king 0.50451 0.68607 -0.59517 -0.022801 0.60046 -0.13498 -0.08813 0.47377 -0.61798 -0.31012 -0.076666 1.493 -0.034189 -0.98173 0.68229 0.81722 -0.51874 -0.31503 -0.55809 0.66421 0.1961 -0.13495 -0.11476 -0.30344 0.41177 -2.223 -1.0756 -1.0783 -0.34354 0.33505 1.9927 -0.04234 -0.64319 0.71125 0.49159 0.16754 0.34344 -0.25663 -0.8523 0.1661 0.40102 1.1685 -1.0137 -0.21585 -0.15155 0.78321 -0.91241 -1.6106 -0.64426 -0.51042
queen 0.37854 1.8233 -1.2648 -0.1043 0.35829 0.60029 -0.17538 0.83767 -0.056798 -0.75795 0.22681 0.98587 0.60587 -0.31419 0.28877 0.56013 -0.77456 0.071421 -0.5741 0.21342 0.57674 0.3868 -0.12574 0.28012 0.28135 -1.8053 -1.0421 -0.19255 -0.55375 -0.054526 1.5574 0.39296 -0.2475 0.34251 0.45365 0.16237 0.52464 -0.070272 -0.83744 -1.0326 0.45946 0.25302 -0.17837 -0.73398 -0.20025 0.2347 -0.56095 -2.2839 0.0092753 -0.60284
man -0.094386 0.43007 -0.17224 -0.45529 1.6447 0.40335 -0.37263 0.25071 -0.10588 0.10778 -0.10848 0.15181 -0.65396 0.55054 0.59591 -0.46278 0.11847 0.64448 -0.70948 0.23947 -0.82905 1.272 0.033021 0.2935 0.3911 -2.8094 -0.70745 0.4106 0.3894 -0.2913 2.6124 -0.34576 -0.16832 0.25154 0.31216 0.31639 0.12539 -0.012646 0.22297 -0.56585 -0.086264 0.62549 -0.0576 0.29375 0.66005 -0.53115 -0.48233 -0.97925 0.53135 -0.11725
woman -0.18153 0.64827 -0.5821 -0.49451 1.5415 1.345 -0.43305 0.58059 0.35556 -0.25184 0.20254 -0.71643 0.3061 0.56127 0.83928 -0.38085 -0.90875 0.43326 -0.014436 0.23725 -0.53799 1.7773 -0.066433 0.69795 0.69291 -2.6739 -0.76805 0.33929 0.19695 -0.35245 2.292 -0.27411 -0.30169 0.00085286 0.16923 0.091433 -0.02361 0.036236 0.34488 -0.83947 -0.25174 0.42123 0.48616 0.022325 0.5576 -0.85223 -0.23073 -1.3138 0.48764 -0.10467
apple 0.52042 -0.8314 0.49961 1.2893 0.1151 0.057521 -1.3753 -0.97313 0.18346 0.47672 -0.15112 0.35532 0.25912 -0.77857 0.52181 0.47695 -1.4251 0.858 0.59821 -1.0903 0.33574 -0.60891 0.41742 0.21569 -0.07417 -0.5822 -0.4502 0.17253 0.16448 -0.38413 2.3283 -0.66682 -0.58181 0.74389 0.095015 -0.47865 -0.84591 0.38704 0.23693 -1.5523 0.64802 -0.16521 -1.4719 -0.16224 0.79857 0.97391 0.40027 -0.21912 -0.30938 0.26581
orange -0.42783 0.43089 -0.50351 0.5776 0.097786 0.2608 -0.68767 -0.31936 -0.25337 -0.37255 -0.045907 -0.53688 0.97511 -0.44595 -0.50414 -0.086751 -1.0645 0.36625 -0.52428 -1.3413 -0.2391 -0.58808 0.56378 -0.062501 -1.7429 -0.88077 -0.27933 1.4705 0.50436 -0.69174 2.0018 0.26663 -0.85679 -0.18893 -0.021125 -0.055118 -0.50337 -0.67157 0.55502 -0.8009 0.10695 0.1459 -0.55588 -0.64971 0.22046 0.67415 -0.45119 -1.1462 0.16348 -0.62946
france 0.66571 0.29845 -1.0467 -0.66932 -0.78082 -0.00013007 -0.17931 0.3711 -0.18622 -0.40535 0.98644 -0.60545 -0.94571 -0.69207 0.56681 -0.3861 0.027634 -1.2464 -0.73561 -0.52222 -0.061766 0.16771 -0.37462 0.4225 -0.63095 -1.636 -0.25094 0.04495 -0.39758 0.98099 2.6293 0.8348 -0.77338 0.39402 -0.57976 -1.029 -0.26709 0.98714 -0.51029 -0.42477 1.3956 -0.029347 2.2295 -1.7079 0.025562 0.6906 -0.579 -0.17824 0.42916 -0.5394
germany 0.31098 0.05573 0.27293 -0.79354 0.15301 0.68547 -0.042667 0.23203 -0.90976 -0.71177 1.1649 -1.1234 -1.2657 -0.3255 0.96688 0.25919 0.57671 -0.55244 -0.73962 0.57585 0.67452 -1.1339 -0.74452 0.7491 -0.20376 -2.0823 0.081193 -0.29871 -0.64778 0.17616 2.4315 0.79447 0.40519 -0.011954 -1.1833 -0.91463 -0.013852 1.4251 -0.32726 -0.2092 0.76412 -0.55271 1.5657 -1.4095 0.51719 0.40492 -0.07026 0.2994 -0.34246 -0.28954
paris 0.76989 1.181 -1.1299 -0.74725 -0.5969 -1.0518 -0.46552 0.27009 -0.99243 -0.04864 0.28642 -0.75261 -1.0566 -0.19205 0.572 -0.24391 -0.36054 -0.70876 -0.91951 -0.27024 1.5131 1.0313 -0.55713 0.52952 -0.71494 -1.0949 -0.60565 0.31329 -0.44488 0.55915 2.1429 0.43389 -0.5529 -0.24261 -0.43679 -0.96014 0.25828 0.79385 0.37132 0.49623 0.84359 -0.25875 1.5616 -1.1199 0.091676 0.076675 -0.45084 -0.86104 0.97599 -0.35615
berlin 0.43801 0.78553 -0.19659 -1.3375 -0.078397 -0.37857 -0.19059 0.31307 -0.99329 -0.50101 0.15781 -0.99817 -1.0697 0.47282 0.5135 0.069309 0.47158 -0.094145 -0.92403 0.93513 1.6719 -0.38873 -0.69136 0.51696 -0.28509 -1.5811 -0.43986 0.38553 -0.97072 -0.346 1.5268 0.38354 0.15708 -0.66334 -1.3933 -0.44692 0.80848 0.94992 0.22149 0.3744 0.47636 -0.45211 0.48729 -1.2534 0.031507 0.35762 -0.074152 -0.098307 -0.27759 -0.084488
